digraph Tree {
node [shape=box] ;
0 [label="X[1] <= 0.001\ngini = 0.364\nsamples = 1594\nvalue = [1246, 213, 135]"] ;
1 [label="X[0] <= 136.5\ngini = 0.583\nsamples = 671\nvalue = [378, 179, 114]"] ;
0 -> 1 [labeldistance=2.5, labelangle=45, headlabel="True"] ;
2 [label="X[2] <= 0.22\ngini = 0.485\nsamples = 389\nvalue = [262, 39, 88]"] ;
1 -> 2 ;
3 [label="X[2] <= 0.002\ngini = 0.474\nsamples = 382\nvalue = [262, 39, 81]"] ;
2 -> 3 ;
4 [label="X[2] <= 0.001\ngini = 0.44\nsamples = 283\nvalue = [200, 15, 68]"] ;
3 -> 4 ;
5 [label="X[0] <= 119.5\ngini = 0.4\nsamples = 237\nvalue = [177, 13, 47]"] ;
4 -> 5 ;
6 [label="gini = 0.0\nsamples = 20\nvalue = [20, 0, 0]"] ;
5 -> 6 ;
7 [label="X[0] <= 120.5\ngini = 0.426\nsamples = 217\nvalue = [157, 13, 47]"] ;
5 -> 7 ;
8 [label="gini = 0.42\nsamples = 20\nvalue = [6, 0, 14]"] ;
7 -> 8 ;
9 [label="X[0] <= 132.5\ngini = 0.38\nsamples = 197\nvalue = [151, 13, 33]"] ;
7 -> 9 ;
10 [label="X[0] <= 124.5\ngini = 0.316\nsamples = 136\nvalue = [111, 10, 15]"] ;
9 -> 10 ;
11 [label="X[0] <= 122.5\ngini = 0.426\nsamples = 60\nvalue = [44, 7, 9]"] ;
10 -> 11 ;
12 [label="X[0] <= 121.5\ngini = 0.184\nsamples = 40\nvalue = [36, 1, 3]"] ;
11 -> 12 ;
13 [label="gini = 0.56\nsamples = 5\nvalue = [3, 1, 1]"] ;
12 -> 13 ;
14 [label="X[1] <= 0.0\ngini = 0.108\nsamples = 35\nvalue = [33, 0, 2]"] ;
12 -> 14 ;
15 [label="gini = 0.111\nsamples = 34\nvalue = [32, 0, 2]"] ;
14 -> 15 ;
16 [label="gini = 0.0\nsamples = 1\nvalue = [1, 0, 0]"] ;
14 -> 16 ;
17 [label="X[0] <= 123.5\ngini = 0.66\nsamples = 20\nvalue = [8, 6, 6]"] ;
11 -> 17 ;
18 [label="gini = 0.623\nsamples = 17\nvalue = [8, 6, 3]"] ;
17 -> 18 ;
19 [label="gini = 0.0\nsamples = 3\nvalue = [0, 0, 3]"] ;
17 -> 19 ;
20 [label="X[0] <= 127.5\ngini = 0.215\nsamples = 76\nvalue = [67, 3, 6]"] ;
10 -> 20 ;
21 [label="gini = 0.0\nsamples = 41\nvalue = [41, 0, 0]"] ;
20 -> 21 ;
22 [label="X[0] <= 129.5\ngini = 0.411\nsamples = 35\nvalue = [26, 3, 6]"] ;
20 -> 22 ;
23 [label="X[0] <= 128.5\ngini = 0.625\nsamples = 8\nvalue = [2, 2, 4]"] ;
22 -> 23 ;
24 [label="gini = 0.611\nsamples = 6\nvalue = [2, 1, 3]"] ;
23 -> 24 ;
25 [label="gini = 0.5\nsamples = 2\nvalue = [0, 1, 1]"] ;
23 -> 25 ;
26 [label="X[0] <= 131.5\ngini = 0.203\nsamples = 27\nvalue = [24, 1, 2]"] ;
22 -> 26 ;
27 [label="X[0] <= 130.5\ngini = 0.124\nsamples = 15\nvalue = [14, 0, 1]"] ;
26 -> 27 ;
28 [label="gini = 0.245\nsamples = 7\nvalue = [6, 0, 1]"] ;
27 -> 28 ;
29 [label="gini = 0.0\nsamples = 8\nvalue = [8, 0, 0]"] ;
27 -> 29 ;
30 [label="gini = 0.292\nsamples = 12\nvalue = [10, 1, 1]"] ;
26 -> 30 ;
31 [label="X[0] <= 135.5\ngini = 0.481\nsamples = 61\nvalue = [40, 3, 18]"] ;
9 -> 31 ;
32 [label="X[1] <= 0.0\ngini = 0.533\nsamples = 44\nvalue = [24, 2, 18]"] ;
31 -> 32 ;
33 [label="X[0] <= 133.5\ngini = 0.53\nsamples = 43\nvalue = [24, 2, 17]"] ;
32 -> 33 ;
34 [label="gini = 0.569\nsamples = 24\nvalue = [12, 2, 10]"] ;
33 -> 34 ;
35 [label="X[0] <= 134.5\ngini = 0.465\nsamples = 19\nvalue = [12, 0, 7]"] ;
33 -> 35 ;
36 [label="gini = 0.444\nsamples = 12\nvalue = [8, 0, 4]"] ;
35 -> 36 ;
37 [label="gini = 0.49\nsamples = 7\nvalue = [4, 0, 3]"] ;
35 -> 37 ;
38 [label="gini = 0.0\nsamples = 1\nvalue = [0, 0, 1]"] ;
32 -> 38 ;
39 [label="gini = 0.111\nsamples = 17\nvalue = [16, 1, 0]"] ;
31 -> 39 ;
40 [label="X[2] <= 0.001\ngini = 0.54\nsamples = 46\nvalue = [23, 2, 21]"] ;
4 -> 40 ;
41 [label="X[2] <= 0.001\ngini = 0.512\nsamples = 17\nvalue = [4, 2, 11]"] ;
40 -> 41 ;
42 [label="X[2] <= 0.001\ngini = 0.444\nsamples = 3\nvalue = [0, 2, 1]"] ;
41 -> 42 ;
43 [label="gini = 0.0\nsamples = 1\nvalue = [0, 0, 1]"] ;
42 -> 43 ;
44 [label="gini = 0.0\nsamples = 2\nvalue = [0, 2, 0]"] ;
42 -> 44 ;
45 [label="X[0] <= 128.0\ngini = 0.408\nsamples = 14\nvalue = [4, 0, 10]"] ;
41 -> 45 ;
46 [label="X[0] <= 124.0\ngini = 0.5\nsamples = 4\nvalue = [2, 0, 2]"] ;
45 -> 46 ;
47 [label="gini = 0.0\nsamples = 2\nvalue = [0, 0, 2]"] ;
46 -> 47 ;
48 [label="gini = 0.0\nsamples = 2\nvalue = [2, 0, 0]"] ;
46 -> 48 ;
49 [label="X[0] <= 129.5\ngini = 0.32\nsamples = 10\nvalue = [2, 0, 8]"] ;
45 -> 49 ;
50 [label="gini = 0.0\nsamples = 6\nvalue = [0, 0, 6]"] ;
49 -> 50 ;
51 [label="X[0] <= 131.5\ngini = 0.5\nsamples = 4\nvalue = [2, 0, 2]"] ;
49 -> 51 ;
52 [label="gini = 0.0\nsamples = 1\nvalue = [1, 0, 0]"] ;
51 -> 52 ;
53 [label="X[2] <= 0.001\ngini = 0.444\nsamples = 3\nvalue = [1, 0, 2]"] ;
51 -> 53 ;
54 [label="gini = 0.0\nsamples = 2\nvalue = [0, 0, 2]"] ;
53 -> 54 ;
55 [label="gini = 0.0\nsamples = 1\nvalue = [1, 0, 0]"] ;
53 -> 55 ;
56 [label="X[0] <= 123.0\ngini = 0.452\nsamples = 29\nvalue = [19, 0, 10]"] ;
40 -> 56 ;
57 [label="gini = 0.0\nsamples = 2\nvalue = [0, 0, 2]"] ;
56 -> 57 ;
58 [label="X[0] <= 127.5\ngini = 0.417\nsamples = 27\nvalue = [19, 0, 8]"] ;
56 -> 58 ;
59 [label="gini = 0.0\nsamples = 6\nvalue = [6, 0, 0]"] ;
58 -> 59 ;
60 [label="X[0] <= 129.5\ngini = 0.472\nsamples = 21\nvalue = [13, 0, 8]"] ;
58 -> 60 ;
61 [label="gini = 0.0\nsamples = 3\nvalue = [0, 0, 3]"] ;
60 -> 61 ;
62 [label="X[2] <= 0.001\ngini = 0.401\nsamples = 18\nvalue = [13, 0, 5]"] ;
60 -> 62 ;
63 [label="gini = 0.0\nsamples = 3\nvalue = [3, 0, 0]"] ;
62 -> 63 ;
64 [label="X[2] <= 0.001\ngini = 0.444\nsamples = 15\nvalue = [10, 0, 5]"] ;
62 -> 64 ;
65 [label="X[2] <= 0.001\ngini = 0.48\nsamples = 5\nvalue = [2, 0, 3]"] ;
64 -> 65 ;
66 [label="X[2] <= 0.001\ngini = 0.444\nsamples = 3\nvalue = [2, 0, 1]"] ;
65 -> 66 ;
67 [label="gini = 0.0\nsamples = 1\nvalue = [0, 0, 1]"] ;
66 -> 67 ;
68 [label="gini = 0.0\nsamples = 2\nvalue = [2, 0, 0]"] ;
66 -> 68 ;
69 [label="gini = 0.0\nsamples = 2\nvalue = [0, 0, 2]"] ;
65 -> 69 ;
70 [label="X[2] <= 0.001\ngini = 0.32\nsamples = 10\nvalue = [8, 0, 2]"] ;
64 -> 70 ;
71 [label="gini = 0.0\nsamples = 5\nvalue = [5, 0, 0]"] ;
70 -> 71 ;
72 [label="X[0] <= 131.5\ngini = 0.48\nsamples = 5\nvalue = [3, 0, 2]"] ;
70 -> 72 ;
73 [label="gini = 0.0\nsamples = 2\nvalue = [2, 0, 0]"] ;
72 -> 73 ;
74 [label="X[0] <= 134.5\ngini = 0.444\nsamples = 3\nvalue = [1, 0, 2]"] ;
72 -> 74 ;
75 [label="gini = 0.0\nsamples = 2\nvalue = [0, 0, 2]"] ;
74 -> 75 ;
76 [label="gini = 0.0\nsamples = 1\nvalue = [1, 0, 0]"] ;
74 -> 76 ;
77 [label="X[2] <= 0.003\ngini = 0.532\nsamples = 99\nvalue = [62, 24, 13]"] ;
3 -> 77 ;
78 [label="X[2] <= 0.003\ngini = 0.665\nsamples = 19\nvalue = [7, 6, 6]"] ;
77 -> 78 ;
79 [label="X[2] <= 0.002\ngini = 0.651\nsamples = 17\nvalue = [7, 4, 6]"] ;
78 -> 79 ;
80 [label="X[2] <= 0.002\ngini = 0.375\nsamples = 4\nvalue = [1, 3, 0]"] ;
79 -> 80 ;
81 [label="X[2] <= 0.002\ngini = 0.5\nsamples = 2\nvalue = [1, 1, 0]"] ;
80 -> 81 ;
82 [label="gini = 0.0\nsamples = 1\nvalue = [0, 1, 0]"] ;
81 -> 82 ;
83 [label="gini = 0.0\nsamples = 1\nvalue = [1, 0, 0]"] ;
81 -> 83 ;
84 [label="gini = 0.0\nsamples = 2\nvalue = [0, 2, 0]"] ;
80 -> 84 ;
85 [label="X[2] <= 0.003\ngini = 0.568\nsamples = 13\nvalue = [6, 1, 6]"] ;
79 -> 85 ;
86 [label="X[0] <= 128.5\ngini = 0.562\nsamples = 11\nvalue = [6, 1, 4]"] ;
85 -> 86 ;
87 [label="X[2] <= 0.002\ngini = 0.375\nsamples = 4\nvalue = [1, 0, 3]"] ;
86 -> 87 ;
88 [label="X[0] <= 125.5\ngini = 0.5\nsamples = 2\nvalue = [1, 0, 1]"] ;
87 -> 88 ;
89 [label="gini = 0.0\nsamples = 1\nvalue = [0, 0, 1]"] ;
88 -> 89 ;
90 [label="gini = 0.0\nsamples = 1\nvalue = [1, 0, 0]"] ;
88 -> 90 ;
91 [label="gini = 0.0\nsamples = 2\nvalue = [0, 0, 2]"] ;
87 -> 91 ;
92 [label="X[2] <= 0.002\ngini = 0.449\nsamples = 7\nvalue = [5, 1, 1]"] ;
86 -> 92 ;
93 [label="gini = 0.0\nsamples = 3\nvalue = [3, 0, 0]"] ;
92 -> 93 ;
94 [label="X[2] <= 0.002\ngini = 0.625\nsamples = 4\nvalue = [2, 1, 1]"] ;
92 -> 94 ;
95 [label="X[2] <= 0.002\ngini = 0.5\nsamples = 2\nvalue = [0, 1, 1]"] ;
94 -> 95 ;
96 [label="gini = 0.0\nsamples = 1\nvalue = [0, 1, 0]"] ;
95 -> 96 ;
97 [label="gini = 0.0\nsamples = 1\nvalue = [0, 0, 1]"] ;
95 -> 97 ;
98 [label="gini = 0.0\nsamples = 2\nvalue = [2, 0, 0]"] ;
94 -> 98 ;
99 [label="gini = 0.0\nsamples = 2\nvalue = [0, 0, 2]"] ;
85 -> 99 ;
100 [label="gini = 0.0\nsamples = 2\nvalue = [0, 2, 0]"] ;
78 -> 100 ;
101 [label="X[0] <= 124.5\ngini = 0.469\nsamples = 80\nvalue = [55, 18, 7]"] ;
77 -> 101 ;
102 [label="gini = 0.0\nsamples = 13\nvalue = [13, 0, 0]"] ;
101 -> 102 ;
103 [label="X[2] <= 0.005\ngini = 0.524\nsamples = 67\nvalue = [42, 18, 7]"] ;
101 -> 103 ;
104 [label="X[0] <= 128.5\ngini = 0.204\nsamples = 18\nvalue = [16, 1, 1]"] ;
103 -> 104 ;
105 [label="X[2] <= 0.003\ngini = 0.5\nsamples = 2\nvalue = [1, 1, 0]"] ;
104 -> 105 ;
106 [label="gini = 0.0\nsamples = 1\nvalue = [1, 0, 0]"] ;
105 -> 106 ;
107 [label="gini = 0.0\nsamples = 1\nvalue = [0, 1, 0]"] ;
105 -> 107 ;
108 [label="X[0] <= 133.5\ngini = 0.117\nsamples = 16\nvalue = [15, 0, 1]"] ;
104 -> 108 ;
109 [label="gini = 0.0\nsamples = 11\nvalue = [11, 0, 0]"] ;
108 -> 109 ;
110 [label="X[0] <= 134.5\ngini = 0.32\nsamples = 5\nvalue = [4, 0, 1]"] ;
108 -> 110 ;
111 [label="gini = 0.0\nsamples = 1\nvalue = [0, 0, 1]"] ;
110 -> 111 ;
112 [label="gini = 0.0\nsamples = 4\nvalue = [4, 0, 0]"] ;
110 -> 112 ;
113 [label="X[2] <= 0.006\ngini = 0.583\nsamples = 49\nvalue = [26, 17, 6]"] ;
103 -> 113 ;
114 [label="X[2] <= 0.005\ngini = 0.219\nsamples = 8\nvalue = [1, 7, 0]"] ;
113 -> 114 ;
115 [label="gini = 0.0\nsamples = 5\nvalue = [0, 5, 0]"] ;
114 -> 115 ;
116 [label="X[0] <= 127.5\ngini = 0.444\nsamples = 3\nvalue = [1, 2, 0]"] ;
114 -> 116 ;
117 [label="gini = 0.0\nsamples = 2\nvalue = [0, 2, 0]"] ;
116 -> 117 ;
118 [label="gini = 0.0\nsamples = 1\nvalue = [1, 0, 0]"] ;
116 -> 118 ;
119 [label="X[0] <= 132.5\ngini = 0.547\nsamples = 41\nvalue = [25, 10, 6]"] ;
113 -> 119 ;
120 [label="X[2] <= 0.124\ngini = 0.446\nsamples = 28\nvalue = [20, 3, 5]"] ;
119 -> 120 ;
121 [label="X[0] <= 129.5\ngini = 0.412\nsamples = 27\nvalue = [20, 2, 5]"] ;
120 -> 121 ;
122 [label="X[2] <= 0.019\ngini = 0.415\nsamples = 17\nvalue = [12, 0, 5]"] ;
121 -> 122 ;
123 [label="X[2] <= 0.01\ngini = 0.26\nsamples = 13\nvalue = [11, 0, 2]"] ;
122 -> 123 ;
124 [label="X[2] <= 0.007\ngini = 0.444\nsamples = 6\nvalue = [4, 0, 2]"] ;
123 -> 124 ;
125 [label="gini = 0.0\nsamples = 3\nvalue = [3, 0, 0]"] ;
124 -> 125 ;
126 [label="X[2] <= 0.008\ngini = 0.444\nsamples = 3\nvalue = [1, 0, 2]"] ;
124 -> 126 ;
127 [label="gini = 0.0\nsamples = 1\nvalue = [0, 0, 1]"] ;
126 -> 127 ;
128 [label="X[0] <= 126.5\ngini = 0.5\nsamples = 2\nvalue = [1, 0, 1]"] ;
126 -> 128 ;
129 [label="gini = 0.0\nsamples = 1\nvalue = [0, 0, 1]"] ;
128 -> 129 ;
130 [label="gini = 0.0\nsamples = 1\nvalue = [1, 0, 0]"] ;
128 -> 130 ;
131 [label="gini = 0.0\nsamples = 7\nvalue = [7, 0, 0]"] ;
123 -> 131 ;
132 [label="X[2] <= 0.039\ngini = 0.375\nsamples = 4\nvalue = [1, 0, 3]"] ;
122 -> 132 ;
133 [label="gini = 0.0\nsamples = 3\nvalue = [0, 0, 3]"] ;
132 -> 133 ;
134 [label="gini = 0.0\nsamples = 1\nvalue = [1, 0, 0]"] ;
132 -> 134 ;
135 [label="X[2] <= 0.009\ngini = 0.32\nsamples = 10\nvalue = [8, 2, 0]"] ;
121 -> 135 ;
136 [label="X[2] <= 0.009\ngini = 0.48\nsamples = 5\nvalue = [3, 2, 0]"] ;
135 -> 136 ;
137 [label="gini = 0.0\nsamples = 3\nvalue = [3, 0, 0]"] ;
136 -> 137 ;
138 [label="gini = 0.0\nsamples = 2\nvalue = [0, 2, 0]"] ;
136 -> 138 ;
139 [label="gini = 0.0\nsamples = 5\nvalue = [5, 0, 0]"] ;
135 -> 139 ;
140 [label="gini = 0.0\nsamples = 1\nvalue = [0, 1, 0]"] ;
120 -> 140 ;
141 [label="X[2] <= 0.015\ngini = 0.556\nsamples = 13\nvalue = [5, 7, 1]"] ;
119 -> 141 ;
142 [label="X[0] <= 134.0\ngini = 0.486\nsamples = 12\nvalue = [5, 7, 0]"] ;
141 -> 142 ;
143 [label="X[2] <= 0.011\ngini = 0.5\nsamples = 10\nvalue = [5, 5, 0]"] ;
142 -> 143 ;
144 [label="X[2] <= 0.009\ngini = 0.444\nsamples = 6\nvalue = [4, 2, 0]"] ;
143 -> 144 ;
145 [label="X[2] <= 0.007\ngini = 0.5\nsamples = 4\nvalue = [2, 2, 0]"] ;
144 -> 145 ;
146 [label="gini = 0.0\nsamples = 1\nvalue = [1, 0, 0]"] ;
145 -> 146 ;
147 [label="X[2] <= 0.009\ngini = 0.444\nsamples = 3\nvalue = [1, 2, 0]"] ;
145 -> 147 ;
148 [label="gini = 0.0\nsamples = 1\nvalue = [0, 1, 0]"] ;
147 -> 148 ;
149 [label="X[2] <= 0.009\ngini = 0.5\nsamples = 2\nvalue = [1, 1, 0]"] ;
147 -> 149 ;
150 [label="gini = 0.0\nsamples = 1\nvalue = [1, 0, 0]"] ;
149 -> 150 ;
151 [label="gini = 0.0\nsamples = 1\nvalue = [0, 1, 0]"] ;
149 -> 151 ;
152 [label="gini = 0.0\nsamples = 2\nvalue = [2, 0, 0]"] ;
144 -> 152 ;
153 [label="X[2] <= 0.013\ngini = 0.375\nsamples = 4\nvalue = [1, 3, 0]"] ;
143 -> 153 ;
154 [label="gini = 0.0\nsamples = 2\nvalue = [0, 2, 0]"] ;
153 -> 154 ;
155 [label="X[2] <= 0.014\ngini = 0.5\nsamples = 2\nvalue = [1, 1, 0]"] ;
153 -> 155 ;
156 [label="gini = 0.0\nsamples = 1\nvalue = [1, 0, 0]"] ;
155 -> 156 ;
157 [label="gini = 0.0\nsamples = 1\nvalue = [0, 1, 0]"] ;
155 -> 157 ;
158 [label="gini = 0.0\nsamples = 2\nvalue = [0, 2, 0]"] ;
142 -> 158 ;
159 [label="gini = 0.0\nsamples = 1\nvalue = [0, 0, 1]"] ;
141 -> 159 ;
160 [label="gini = 0.0\nsamples = 7\nvalue = [0, 0, 7]"] ;
2 -> 160 ;
161 [label="X[2] <= 0.002\ngini = 0.576\nsamples = 282\nvalue = [116, 140, 26]"] ;
1 -> 161 ;
162 [label="X[0] <= 144.5\ngini = 0.556\nsamples = 206\nvalue = [102, 91, 13]"] ;
161 -> 162 ;
163 [label="X[2] <= 0.001\ngini = 0.515\nsamples = 102\nvalue = [61, 36, 5]"] ;
162 -> 163 ;
164 [label="X[1] <= 0.0\ngini = 0.465\nsamples = 85\nvalue = [55, 29, 1]"] ;
163 -> 164 ;
165 [label="X[0] <= 139.0\ngini = 0.452\nsamples = 81\nvalue = [54, 26, 1]"] ;
164 -> 165 ;
166 [label="X[2] <= 0.001\ngini = 0.533\nsamples = 22\nvalue = [12, 9, 1]"] ;
165 -> 166 ;
167 [label="X[2] <= 0.001\ngini = 0.515\nsamples = 20\nvalue = [12, 7, 1]"] ;
166 -> 167 ;
168 [label="X[0] <= 137.5\ngini = 0.526\nsamples = 19\nvalue = [11, 7, 1]"] ;
167 -> 168 ;
169 [label="gini = 0.444\nsamples = 3\nvalue = [2, 1, 0]"] ;
168 -> 169 ;
170 [label="gini = 0.539\nsamples = 16\nvalue = [9, 6, 1]"] ;
168 -> 170 ;
171 [label="gini = 0.0\nsamples = 1\nvalue = [1, 0, 0]"] ;
167 -> 171 ;
172 [label="gini = 0.0\nsamples = 2\nvalue = [0, 2, 0]"] ;
166 -> 172 ;
173 [label="X[2] <= 0.0\ngini = 0.41\nsamples = 59\nvalue = [42, 17, 0]"] ;
165 -> 173 ;
174 [label="X[0] <= 141.0\ngini = 0.436\nsamples = 53\nvalue = [36, 17, 0]"] ;
173 -> 174 ;
175 [label="gini = 0.469\nsamples = 8\nvalue = [5, 3, 0]"] ;
174 -> 175 ;
176 [label="X[0] <= 142.5\ngini = 0.429\nsamples = 45\nvalue = [31, 14, 0]"] ;
174 -> 176 ;
177 [label="gini = 0.444\nsamples = 12\nvalue = [8, 4, 0]"] ;
176 -> 177 ;
178 [label="X[0] <= 143.5\ngini = 0.422\nsamples = 33\nvalue = [23, 10, 0]"] ;
176 -> 178 ;
179 [label="gini = 0.42\nsamples = 20\nvalue = [14, 6, 0]"] ;
178 -> 179 ;
180 [label="gini = 0.426\nsamples = 13\nvalue = [9, 4, 0]"] ;
178 -> 180 ;
181 [label="gini = 0.0\nsamples = 6\nvalue = [6, 0, 0]"] ;
173 -> 181 ;
182 [label="X[1] <= 0.001\ngini = 0.375\nsamples = 4\nvalue = [1, 3, 0]"] ;
164 -> 182 ;
183 [label="gini = 0.0\nsamples = 2\nvalue = [0, 2, 0]"] ;
182 -> 183 ;
184 [label="X[1] <= 0.001\ngini = 0.5\nsamples = 2\nvalue = [1, 1, 0]"] ;
182 -> 184 ;
185 [label="gini = 0.0\nsamples = 1\nvalue = [1, 0, 0]"] ;
184 -> 185 ;
186 [label="gini = 0.0\nsamples = 1\nvalue = [0, 1, 0]"] ;
184 -> 186 ;
187 [label="X[2] <= 0.002\ngini = 0.651\nsamples = 17\nvalue = [6, 7, 4]"] ;
163 -> 187 ;
188 [label="X[0] <= 138.5\ngini = 0.562\nsamples = 11\nvalue = [1, 6, 4]"] ;
187 -> 188 ;
189 [label="gini = 0.0\nsamples = 2\nvalue = [0, 0, 2]"] ;
188 -> 189 ;
190 [label="X[0] <= 143.5\ngini = 0.494\nsamples = 9\nvalue = [1, 6, 2]"] ;
188 -> 190 ;
191 [label="X[2] <= 0.002\ngini = 0.32\nsamples = 5\nvalue = [1, 4, 0]"] ;
190 -> 191 ;
192 [label="gini = 0.0\nsamples = 2\nvalue = [0, 2, 0]"] ;
191 -> 192 ;
193 [label="X[0] <= 140.0\ngini = 0.444\nsamples = 3\nvalue = [1, 2, 0]"] ;
191 -> 193 ;
194 [label="gini = 0.0\nsamples = 1\nvalue = [0, 1, 0]"] ;
193 -> 194 ;
195 [label="gini = 0.5\nsamples = 2\nvalue = [1, 1, 0]"] ;
193 -> 195 ;
196 [label="X[2] <= 0.002\ngini = 0.5\nsamples = 4\nvalue = [0, 2, 2]"] ;
190 -> 196 ;
197 [label="gini = 0.0\nsamples = 1\nvalue = [0, 0, 1]"] ;
196 -> 197 ;
198 [label="X[2] <= 0.002\ngini = 0.444\nsamples = 3\nvalue = [0, 2, 1]"] ;
196 -> 198 ;
199 [label="gini = 0.0\nsamples = 1\nvalue = [0, 1, 0]"] ;
198 -> 199 ;
200 [label="X[2] <= 0.002\ngini = 0.5\nsamples = 2\nvalue = [0, 1, 1]"] ;
198 -> 200 ;
201 [label="gini = 0.0\nsamples = 1\nvalue = [0, 0, 1]"] ;
200 -> 201 ;
202 [label="gini = 0.0\nsamples = 1\nvalue = [0, 1, 0]"] ;
200 -> 202 ;
203 [label="X[0] <= 143.0\ngini = 0.278\nsamples = 6\nvalue = [5, 1, 0]"] ;
187 -> 203 ;
204 [label="gini = 0.0\nsamples = 5\nvalue = [5, 0, 0]"] ;
203 -> 204 ;
205 [label="gini = 0.0\nsamples = 1\nvalue = [0, 1, 0]"] ;
203 -> 205 ;
206 [label="X[2] <= 0.001\ngini = 0.559\nsamples = 104\nvalue = [41, 55, 8]"] ;
162 -> 206 ;
207 [label="X[0] <= 145.5\ngini = 0.525\nsamples = 98\nvalue = [39, 55, 4]"] ;
206 -> 207 ;
208 [label="gini = 0.298\nsamples = 11\nvalue = [2, 9, 0]"] ;
207 -> 208 ;
209 [label="X[0] <= 158.5\ngini = 0.537\nsamples = 87\nvalue = [37, 46, 4]"] ;
207 -> 209 ;
210 [label="X[0] <= 157.0\ngini = 0.542\nsamples = 84\nvalue = [37, 43, 4]"] ;
209 -> 210 ;
211 [label="X[1] <= 0.0\ngini = 0.538\nsamples = 80\nvalue = [33, 43, 4]"] ;
210 -> 211 ;
212 [label="X[0] <= 151.5\ngini = 0.536\nsamples = 78\nvalue = [31, 43, 4]"] ;
211 -> 212 ;
213 [label="X[0] <= 150.5\ngini = 0.52\nsamples = 63\nvalue = [23, 37, 3]"] ;
212 -> 213 ;
214 [label="X[0] <= 149.5\ngini = 0.539\nsamples = 57\nvalue = [23, 31, 3]"] ;
213 -> 214 ;
215 [label="X[2] <= 0.001\ngini = 0.536\nsamples = 48\nvalue = [21, 25, 2]"] ;
214 -> 215 ;
216 [label="X[0] <= 147.5\ngini = 0.538\nsamples = 47\nvalue = [21, 24, 2]"] ;
215 -> 216 ;
217 [label="X[0] <= 146.5\ngini = 0.526\nsamples = 23\nvalue = [9, 13, 1]"] ;
216 -> 217 ;
218 [label="gini = 0.549\nsamples = 18\nvalue = [8, 9, 1]"] ;
217 -> 218 ;
219 [label="gini = 0.32\nsamples = 5\nvalue = [1, 4, 0]"] ;
217 -> 219 ;
220 [label="X[0] <= 148.5\ngini = 0.538\nsamples = 24\nvalue = [12, 11, 1]"] ;
216 -> 220 ;
221 [label="gini = 0.539\nsamples = 16\nvalue = [9, 6, 1]"] ;
220 -> 221 ;
222 [label="gini = 0.469\nsamples = 8\nvalue = [3, 5, 0]"] ;
220 -> 222 ;
223 [label="gini = 0.0\nsamples = 1\nvalue = [0, 1, 0]"] ;
215 -> 223 ;
224 [label="gini = 0.494\nsamples = 9\nvalue = [2, 6, 1]"] ;
214 -> 224 ;
225 [label="gini = 0.0\nsamples = 6\nvalue = [0, 6, 0]"] ;
213 -> 225 ;
226 [label="X[2] <= 0.001\ngini = 0.551\nsamples = 15\nvalue = [8, 6, 1]"] ;
212 -> 226 ;
227 [label="X[0] <= 153.0\ngini = 0.561\nsamples = 14\nvalue = [7, 6, 1]"] ;
226 -> 227 ;
228 [label="gini = 0.562\nsamples = 11\nvalue = [6, 4, 1]"] ;
227 -> 228 ;
229 [label="X[0] <= 155.0\ngini = 0.444\nsamples = 3\nvalue = [1, 2, 0]"] ;
227 -> 229 ;
230 [label="gini = 0.0\nsamples = 1\nvalue = [0, 1, 0]"] ;
229 -> 230 ;
231 [label="gini = 0.5\nsamples = 2\nvalue = [1, 1, 0]"] ;
229 -> 231 ;
232 [label="gini = 0.0\nsamples = 1\nvalue = [1, 0, 0]"] ;
226 -> 232 ;
233 [label="gini = 0.0\nsamples = 2\nvalue = [2, 0, 0]"] ;
211 -> 233 ;
234 [label="gini = 0.0\nsamples = 4\nvalue = [4, 0, 0]"] ;
210 -> 234 ;
235 [label="gini = 0.0\nsamples = 3\nvalue = [0, 3, 0]"] ;
209 -> 235 ;
236 [label="X[0] <= 147.5\ngini = 0.444\nsamples = 6\nvalue = [2, 0, 4]"] ;
206 -> 236 ;
237 [label="gini = 0.0\nsamples = 1\nvalue = [1, 0, 0]"] ;
236 -> 237 ;
238 [label="X[2] <= 0.002\ngini = 0.32\nsamples = 5\nvalue = [1, 0, 4]"] ;
236 -> 238 ;
239 [label="gini = 0.0\nsamples = 4\nvalue = [0, 0, 4]"] ;
238 -> 239 ;
240 [label="gini = 0.0\nsamples = 1\nvalue = [1, 0, 0]"] ;
238 -> 240 ;
241 [label="X[0] <= 147.0\ngini = 0.521\nsamples = 76\nvalue = [14, 49, 13]"] ;
161 -> 241 ;
242 [label="X[2] <= 0.032\ngini = 0.42\nsamples = 62\nvalue = [14, 45, 3]"] ;
241 -> 242 ;
243 [label="X[0] <= 140.5\ngini = 0.395\nsamples = 60\nvalue = [12, 45, 3]"] ;
242 -> 243 ;
244 [label="X[0] <= 139.5\ngini = 0.532\nsamples = 27\nvalue = [9, 16, 2]"] ;
243 -> 244 ;
245 [label="X[2] <= 0.004\ngini = 0.388\nsamples = 19\nvalue = [5, 14, 0]"] ;
244 -> 245 ;
246 [label="gini = 0.0\nsamples = 4\nvalue = [0, 4, 0]"] ;
245 -> 246 ;
247 [label="X[2] <= 0.004\ngini = 0.444\nsamples = 15\nvalue = [5, 10, 0]"] ;
245 -> 247 ;
248 [label="gini = 0.0\nsamples = 2\nvalue = [2, 0, 0]"] ;
247 -> 248 ;
249 [label="X[2] <= 0.008\ngini = 0.355\nsamples = 13\nvalue = [3, 10, 0]"] ;
247 -> 249 ;
250 [label="gini = 0.0\nsamples = 6\nvalue = [0, 6, 0]"] ;
249 -> 250 ;
251 [label="X[2] <= 0.013\ngini = 0.49\nsamples = 7\nvalue = [3, 4, 0]"] ;
249 -> 251 ;
252 [label="X[2] <= 0.009\ngini = 0.375\nsamples = 4\nvalue = [3, 1, 0]"] ;
251 -> 252 ;
253 [label="X[0] <= 138.5\ngini = 0.5\nsamples = 2\nvalue = [1, 1, 0]"] ;
252 -> 253 ;
254 [label="gini = 0.0\nsamples = 1\nvalue = [0, 1, 0]"] ;
253 -> 254 ;
255 [label="gini = 0.0\nsamples = 1\nvalue = [1, 0, 0]"] ;
253 -> 255 ;
256 [label="gini = 0.0\nsamples = 2\nvalue = [2, 0, 0]"] ;
252 -> 256 ;
257 [label="gini = 0.0\nsamples = 3\nvalue = [0, 3, 0]"] ;
251 -> 257 ;
258 [label="X[2] <= 0.005\ngini = 0.625\nsamples = 8\nvalue = [4, 2, 2]"] ;
244 -> 258 ;
259 [label="gini = 0.0\nsamples = 4\nvalue = [4, 0, 0]"] ;
258 -> 259 ;
260 [label="X[2] <= 0.007\ngini = 0.5\nsamples = 4\nvalue = [0, 2, 2]"] ;
258 -> 260 ;
261 [label="gini = 0.0\nsamples = 2\nvalue = [0, 2, 0]"] ;
260 -> 261 ;
262 [label="gini = 0.0\nsamples = 2\nvalue = [0, 0, 2]"] ;
260 -> 262 ;
263 [label="X[2] <= 0.011\ngini = 0.219\nsamples = 33\nvalue = [3, 29, 1]"] ;
243 -> 263 ;
264 [label="X[2] <= 0.009\ngini = 0.335\nsamples = 20\nvalue = [3, 16, 1]"] ;
263 -> 264 ;
265 [label="X[2] <= 0.005\ngini = 0.198\nsamples = 18\nvalue = [2, 16, 0]"] ;
264 -> 265 ;
266 [label="X[2] <= 0.005\ngini = 0.375\nsamples = 8\nvalue = [2, 6, 0]"] ;
265 -> 266 ;
267 [label="X[2] <= 0.003\ngini = 0.245\nsamples = 7\nvalue = [1, 6, 0]"] ;
266 -> 267 ;
268 [label="X[2] <= 0.003\ngini = 0.444\nsamples = 3\nvalue = [1, 2, 0]"] ;
267 -> 268 ;
269 [label="gini = 0.0\nsamples = 2\nvalue = [0, 2, 0]"] ;
268 -> 269 ;
270 [label="gini = 0.0\nsamples = 1\nvalue = [1, 0, 0]"] ;
268 -> 270 ;
271 [label="gini = 0.0\nsamples = 4\nvalue = [0, 4, 0]"] ;
267 -> 271 ;
272 [label="gini = 0.0\nsamples = 1\nvalue = [1, 0, 0]"] ;
266 -> 272 ;
273 [label="gini = 0.0\nsamples = 10\nvalue = [0, 10, 0]"] ;
265 -> 273 ;
274 [label="X[2] <= 0.01\ngini = 0.5\nsamples = 2\nvalue = [1, 0, 1]"] ;
264 -> 274 ;
275 [label="gini = 0.0\nsamples = 1\nvalue = [1, 0, 0]"] ;
274 -> 275 ;
276 [label="gini = 0.0\nsamples = 1\nvalue = [0, 0, 1]"] ;
274 -> 276 ;
277 [label="gini = 0.0\nsamples = 13\nvalue = [0, 13, 0]"] ;
263 -> 277 ;
278 [label="gini = 0.0\nsamples = 2\nvalue = [2, 0, 0]"] ;
242 -> 278 ;
279 [label="X[2] <= 0.023\ngini = 0.408\nsamples = 14\nvalue = [0, 4, 10]"] ;
241 -> 279 ;
280 [label="X[2] <= 0.02\ngini = 0.463\nsamples = 11\nvalue = [0, 4, 7]"] ;
279 -> 280 ;
281 [label="X[2] <= 0.004\ngini = 0.42\nsamples = 10\nvalue = [0, 3, 7]"] ;
280 -> 281 ;
282 [label="X[2] <= 0.003\ngini = 0.49\nsamples = 7\nvalue = [0, 3, 4]"] ;
281 -> 282 ;
283 [label="gini = 0.0\nsamples = 2\nvalue = [0, 0, 2]"] ;
282 -> 283 ;
284 [label="X[0] <= 149.0\ngini = 0.48\nsamples = 5\nvalue = [0, 3, 2]"] ;
282 -> 284 ;
285 [label="gini = 0.0\nsamples = 3\nvalue = [0, 3, 0]"] ;
284 -> 285 ;
286 [label="gini = 0.0\nsamples = 2\nvalue = [0, 0, 2]"] ;
284 -> 286 ;
287 [label="gini = 0.0\nsamples = 3\nvalue = [0, 0, 3]"] ;
281 -> 287 ;
288 [label="gini = 0.0\nsamples = 1\nvalue = [0, 1, 0]"] ;
280 -> 288 ;
289 [label="gini = 0.0\nsamples = 3\nvalue = [0, 0, 3]"] ;
279 -> 289 ;
290 [label="X[1] <= 0.002\ngini = 0.114\nsamples = 923\nvalue = [868, 34, 21]"] ;
0 -> 290 [labeldistance=2.5, labelangle=-45, headlabel="False"] ;
291 [label="X[0] <= 136.5\ngini = 0.329\nsamples = 200\nvalue = [161, 28, 11]"] ;
290 -> 291 ;
292 [label="X[0] <= 129.5\ngini = 0.212\nsamples = 119\nvalue = [105, 3, 11]"] ;
291 -> 292 ;
293 [label="X[0] <= 111.0\ngini = 0.033\nsamples = 59\nvalue = [58, 0, 1]"] ;
292 -> 293 ;
294 [label="X[2] <= 0.002\ngini = 0.5\nsamples = 2\nvalue = [1, 0, 1]"] ;
293 -> 294 ;
295 [label="gini = 0.0\nsamples = 1\nvalue = [1, 0, 0]"] ;
294 -> 295 ;
296 [label="gini = 0.0\nsamples = 1\nvalue = [0, 0, 1]"] ;
294 -> 296 ;
297 [label="gini = 0.0\nsamples = 57\nvalue = [57, 0, 0]"] ;
293 -> 297 ;
298 [label="X[2] <= 0.233\ngini = 0.356\nsamples = 60\nvalue = [47, 3, 10]"] ;
292 -> 298 ;
299 [label="X[0] <= 134.5\ngini = 0.336\nsamples = 59\nvalue = [47, 2, 10]"] ;
298 -> 299 ;
300 [label="X[1] <= 0.001\ngini = 0.393\nsamples = 39\nvalue = [29, 1, 9]"] ;
299 -> 300 ;
301 [label="gini = 0.0\nsamples = 5\nvalue = [5, 0, 0]"] ;
300 -> 301 ;
302 [label="X[1] <= 0.001\ngini = 0.431\nsamples = 34\nvalue = [24, 1, 9]"] ;
300 -> 302 ;
303 [label="gini = 0.0\nsamples = 1\nvalue = [0, 0, 1]"] ;
302 -> 303 ;
304 [label="X[1] <= 0.002\ngini = 0.411\nsamples = 33\nvalue = [24, 1, 8]"] ;
302 -> 304 ;
305 [label="X[1] <= 0.001\ngini = 0.457\nsamples = 17\nvalue = [11, 0, 6]"] ;
304 -> 305 ;
306 [label="gini = 0.0\nsamples = 4\nvalue = [4, 0, 0]"] ;
305 -> 306 ;
307 [label="X[1] <= 0.001\ngini = 0.497\nsamples = 13\nvalue = [7, 0, 6]"] ;
305 -> 307 ;
308 [label="gini = 0.0\nsamples = 2\nvalue = [0, 0, 2]"] ;
307 -> 308 ;
309 [label="X[1] <= 0.001\ngini = 0.463\nsamples = 11\nvalue = [7, 0, 4]"] ;
307 -> 309 ;
310 [label="X[2] <= 0.001\ngini = 0.278\nsamples = 6\nvalue = [5, 0, 1]"] ;
309 -> 310 ;
311 [label="gini = 0.0\nsamples = 3\nvalue = [3, 0, 0]"] ;
310 -> 311 ;
312 [label="X[0] <= 131.5\ngini = 0.444\nsamples = 3\nvalue = [2, 0, 1]"] ;
310 -> 312 ;
313 [label="gini = 0.0\nsamples = 1\nvalue = [0, 0, 1]"] ;
312 -> 313 ;
314 [label="gini = 0.0\nsamples = 2\nvalue = [2, 0, 0]"] ;
312 -> 314 ;
315 [label="X[1] <= 0.001\ngini = 0.48\nsamples = 5\nvalue = [2, 0, 3]"] ;
309 -> 315 ;
316 [label="gini = 0.0\nsamples = 2\nvalue = [0, 0, 2]"] ;
315 -> 316 ;
317 [label="X[2] <= 0.001\ngini = 0.444\nsamples = 3\nvalue = [2, 0, 1]"] ;
315 -> 317 ;
318 [label="gini = 0.0\nsamples = 2\nvalue = [2, 0, 0]"] ;
317 -> 318 ;
319 [label="gini = 0.0\nsamples = 1\nvalue = [0, 0, 1]"] ;
317 -> 319 ;
320 [label="X[1] <= 0.002\ngini = 0.32\nsamples = 16\nvalue = [13, 1, 2]"] ;
304 -> 320 ;
321 [label="X[1] <= 0.002\ngini = 0.18\nsamples = 10\nvalue = [9, 1, 0]"] ;
320 -> 321 ;
322 [label="gini = 0.0\nsamples = 5\nvalue = [5, 0, 0]"] ;
321 -> 322 ;
323 [label="X[1] <= 0.002\ngini = 0.32\nsamples = 5\nvalue = [4, 1, 0]"] ;
321 -> 323 ;
324 [label="gini = 0.0\nsamples = 1\nvalue = [0, 1, 0]"] ;
323 -> 324 ;
325 [label="gini = 0.0\nsamples = 4\nvalue = [4, 0, 0]"] ;
323 -> 325 ;
326 [label="X[1] <= 0.002\ngini = 0.444\nsamples = 6\nvalue = [4, 0, 2]"] ;
320 -> 326 ;
327 [label="gini = 0.0\nsamples = 2\nvalue = [0, 0, 2]"] ;
326 -> 327 ;
328 [label="gini = 0.0\nsamples = 4\nvalue = [4, 0, 0]"] ;
326 -> 328 ;
329 [label="X[1] <= 0.001\ngini = 0.185\nsamples = 20\nvalue = [18, 1, 1]"] ;
299 -> 329 ;
330 [label="X[1] <= 0.001\ngini = 0.5\nsamples = 2\nvalue = [1, 1, 0]"] ;
329 -> 330 ;
331 [label="gini = 0.0\nsamples = 1\nvalue = [1, 0, 0]"] ;
330 -> 331 ;
332 [label="gini = 0.0\nsamples = 1\nvalue = [0, 1, 0]"] ;
330 -> 332 ;
333 [label="X[1] <= 0.001\ngini = 0.105\nsamples = 18\nvalue = [17, 0, 1]"] ;
329 -> 333 ;
334 [label="X[1] <= 0.001\ngini = 0.375\nsamples = 4\nvalue = [3, 0, 1]"] ;
333 -> 334 ;
335 [label="gini = 0.0\nsamples = 3\nvalue = [3, 0, 0]"] ;
334 -> 335 ;
336 [label="gini = 0.0\nsamples = 1\nvalue = [0, 0, 1]"] ;
334 -> 336 ;
337 [label="gini = 0.0\nsamples = 14\nvalue = [14, 0, 0]"] ;
333 -> 337 ;
338 [label="gini = 0.0\nsamples = 1\nvalue = [0, 1, 0]"] ;
298 -> 338 ;
339 [label="X[0] <= 139.5\ngini = 0.427\nsamples = 81\nvalue = [56, 25, 0]"] ;
291 -> 339 ;
340 [label="X[0] <= 138.5\ngini = 0.5\nsamples = 26\nvalue = [13, 13, 0]"] ;
339 -> 340 ;
341 [label="X[1] <= 0.001\ngini = 0.472\nsamples = 21\nvalue = [13, 8, 0]"] ;
340 -> 341 ;
342 [label="gini = 0.0\nsamples = 3\nvalue = [0, 3, 0]"] ;
341 -> 342 ;
343 [label="X[1] <= 0.002\ngini = 0.401\nsamples = 18\nvalue = [13, 5, 0]"] ;
341 -> 343 ;
344 [label="X[0] <= 137.5\ngini = 0.36\nsamples = 17\nvalue = [13, 4, 0]"] ;
343 -> 344 ;
345 [label="X[1] <= 0.002\ngini = 0.5\nsamples = 6\nvalue = [3, 3, 0]"] ;
344 -> 345 ;
346 [label="X[1] <= 0.001\ngini = 0.375\nsamples = 4\nvalue = [1, 3, 0]"] ;
345 -> 346 ;
347 [label="gini = 0.0\nsamples = 1\nvalue = [1, 0, 0]"] ;
346 -> 347 ;
348 [label="gini = 0.0\nsamples = 3\nvalue = [0, 3, 0]"] ;
346 -> 348 ;
349 [label="gini = 0.0\nsamples = 2\nvalue = [2, 0, 0]"] ;
345 -> 349 ;
350 [label="X[1] <= 0.001\ngini = 0.165\nsamples = 11\nvalue = [10, 1, 0]"] ;
344 -> 350 ;
351 [label="X[1] <= 0.001\ngini = 0.32\nsamples = 5\nvalue = [4, 1, 0]"] ;
350 -> 351 ;
352 [label="gini = 0.0\nsamples = 4\nvalue = [4, 0, 0]"] ;
351 -> 352 ;
353 [label="gini = 0.0\nsamples = 1\nvalue = [0, 1, 0]"] ;
351 -> 353 ;
354 [label="gini = 0.0\nsamples = 6\nvalue = [6, 0, 0]"] ;
350 -> 354 ;
355 [label="gini = 0.0\nsamples = 1\nvalue = [0, 1, 0]"] ;
343 -> 355 ;
356 [label="gini = 0.0\nsamples = 5\nvalue = [0, 5, 0]"] ;
340 -> 356 ;
357 [label="X[0] <= 149.5\ngini = 0.341\nsamples = 55\nvalue = [43, 12, 0]"] ;
339 -> 357 ;
358 [label="X[2] <= 0.009\ngini = 0.269\nsamples = 50\nvalue = [42, 8, 0]"] ;
357 -> 358 ;
359 [label="X[2] <= 0.0\ngini = 0.194\nsamples = 46\nvalue = [41, 5, 0]"] ;
358 -> 359 ;
360 [label="X[0] <= 140.5\ngini = 0.234\nsamples = 37\nvalue = [32, 5, 0]"] ;
359 -> 360 ;
361 [label="X[1] <= 0.001\ngini = 0.5\nsamples = 2\nvalue = [1, 1, 0]"] ;
360 -> 361 ;
362 [label="gini = 0.0\nsamples = 1\nvalue = [1, 0, 0]"] ;
361 -> 362 ;
363 [label="gini = 0.0\nsamples = 1\nvalue = [0, 1, 0]"] ;
361 -> 363 ;
364 [label="X[1] <= 0.002\ngini = 0.202\nsamples = 35\nvalue = [31, 4, 0]"] ;
360 -> 364 ;
365 [label="X[0] <= 143.5\ngini = 0.133\nsamples = 28\nvalue = [26, 2, 0]"] ;
364 -> 365 ;
366 [label="gini = 0.0\nsamples = 18\nvalue = [18, 0, 0]"] ;
365 -> 366 ;
367 [label="X[1] <= 0.001\ngini = 0.32\nsamples = 10\nvalue = [8, 2, 0]"] ;
365 -> 367 ;
368 [label="X[1] <= 0.001\ngini = 0.444\nsamples = 6\nvalue = [4, 2, 0]"] ;
367 -> 368 ;
369 [label="gini = 0.0\nsamples = 3\nvalue = [3, 0, 0]"] ;
368 -> 369 ;
370 [label="X[1] <= 0.001\ngini = 0.444\nsamples = 3\nvalue = [1, 2, 0]"] ;
368 -> 370 ;
371 [label="gini = 0.0\nsamples = 1\nvalue = [0, 1, 0]"] ;
370 -> 371 ;
372 [label="X[1] <= 0.001\ngini = 0.5\nsamples = 2\nvalue = [1, 1, 0]"] ;
370 -> 372 ;
373 [label="gini = 0.0\nsamples = 1\nvalue = [1, 0, 0]"] ;
372 -> 373 ;
374 [label="gini = 0.0\nsamples = 1\nvalue = [0, 1, 0]"] ;
372 -> 374 ;
375 [label="gini = 0.0\nsamples = 4\nvalue = [4, 0, 0]"] ;
367 -> 375 ;
376 [label="X[1] <= 0.002\ngini = 0.408\nsamples = 7\nvalue = [5, 2, 0]"] ;
364 -> 376 ;
377 [label="gini = 0.0\nsamples = 1\nvalue = [0, 1, 0]"] ;
376 -> 377 ;
378 [label="X[0] <= 147.0\ngini = 0.278\nsamples = 6\nvalue = [5, 1, 0]"] ;
376 -> 378 ;
379 [label="gini = 0.0\nsamples = 4\nvalue = [4, 0, 0]"] ;
378 -> 379 ;
380 [label="X[1] <= 0.002\ngini = 0.5\nsamples = 2\nvalue = [1, 1, 0]"] ;
378 -> 380 ;
381 [label="gini = 0.0\nsamples = 1\nvalue = [1, 0, 0]"] ;
380 -> 381 ;
382 [label="gini = 0.0\nsamples = 1\nvalue = [0, 1, 0]"] ;
380 -> 382 ;
383 [label="gini = 0.0\nsamples = 9\nvalue = [9, 0, 0]"] ;
359 -> 383 ;
384 [label="X[1] <= 0.002\ngini = 0.375\nsamples = 4\nvalue = [1, 3, 0]"] ;
358 -> 384 ;
385 [label="gini = 0.0\nsamples = 3\nvalue = [0, 3, 0]"] ;
384 -> 385 ;
386 [label="gini = 0.0\nsamples = 1\nvalue = [1, 0, 0]"] ;
384 -> 386 ;
387 [label="X[1] <= 0.002\ngini = 0.32\nsamples = 5\nvalue = [1, 4, 0]"] ;
357 -> 387 ;
388 [label="gini = 0.0\nsamples = 3\nvalue = [0, 3, 0]"] ;
387 -> 388 ;
389 [label="X[1] <= 0.002\ngini = 0.5\nsamples = 2\nvalue = [1, 1, 0]"] ;
387 -> 389 ;
390 [label="gini = 0.0\nsamples = 1\nvalue = [1, 0, 0]"] ;
389 -> 390 ;
391 [label="gini = 0.0\nsamples = 1\nvalue = [0, 1, 0]"] ;
389 -> 391 ;
392 [label="X[0] <= 111.0\ngini = 0.044\nsamples = 723\nvalue = [707, 6, 10]"] ;
290 -> 392 ;
393 [label="X[2] <= 0.001\ngini = 0.408\nsamples = 14\nvalue = [10, 0, 4]"] ;
392 -> 393 ;
394 [label="X[1] <= 0.004\ngini = 0.165\nsamples = 11\nvalue = [10, 0, 1]"] ;
393 -> 394 ;
395 [label="gini = 0.0\nsamples = 7\nvalue = [7, 0, 0]"] ;
394 -> 395 ;
396 [label="X[1] <= 0.005\ngini = 0.375\nsamples = 4\nvalue = [3, 0, 1]"] ;
394 -> 396 ;
397 [label="gini = 0.0\nsamples = 1\nvalue = [0, 0, 1]"] ;
396 -> 397 ;
398 [label="gini = 0.0\nsamples = 3\nvalue = [3, 0, 0]"] ;
396 -> 398 ;
399 [label="gini = 0.0\nsamples = 3\nvalue = [0, 0, 3]"] ;
393 -> 399 ;
400 [label="X[1] <= 0.004\ngini = 0.033\nsamples = 709\nvalue = [697, 6, 6]"] ;
392 -> 400 ;
401 [label="X[1] <= 0.004\ngini = 0.096\nsamples = 220\nvalue = [209, 5, 6]"] ;
400 -> 401 ;
402 [label="X[2] <= 0.01\ngini = 0.088\nsamples = 219\nvalue = [209, 5, 5]"] ;
401 -> 402 ;
403 [label="X[0] <= 133.5\ngini = 0.068\nsamples = 200\nvalue = [193, 2, 5]"] ;
402 -> 403 ;
404 [label="gini = 0.0\nsamples = 112\nvalue = [112, 0, 0]"] ;
403 -> 404 ;
405 [label="X[0] <= 134.5\ngini = 0.149\nsamples = 88\nvalue = [81, 2, 5]"] ;
403 -> 405 ;
406 [label="X[1] <= 0.003\ngini = 0.486\nsamples = 12\nvalue = [7, 0, 5]"] ;
405 -> 406 ;
407 [label="gini = 0.0\nsamples = 6\nvalue = [6, 0, 0]"] ;
406 -> 407 ;
408 [label="X[2] <= 0.0\ngini = 0.278\nsamples = 6\nvalue = [1, 0, 5]"] ;
406 -> 408 ;
409 [label="gini = 0.0\nsamples = 3\nvalue = [0, 0, 3]"] ;
408 -> 409 ;
410 [label="X[2] <= 0.001\ngini = 0.444\nsamples = 3\nvalue = [1, 0, 2]"] ;
408 -> 410 ;
411 [label="gini = 0.0\nsamples = 1\nvalue = [1, 0, 0]"] ;
410 -> 411 ;
412 [label="gini = 0.0\nsamples = 2\nvalue = [0, 0, 2]"] ;
410 -> 412 ;
413 [label="X[2] <= 0.003\ngini = 0.051\nsamples = 76\nvalue = [74, 2, 0]"] ;
405 -> 413 ;
414 [label="X[0] <= 135.5\ngini = 0.028\nsamples = 70\nvalue = [69, 1, 0]"] ;
413 -> 414 ;
415 [label="X[1] <= 0.003\ngini = 0.278\nsamples = 6\nvalue = [5, 1, 0]"] ;
414 -> 415 ;
416 [label="X[1] <= 0.002\ngini = 0.5\nsamples = 2\nvalue = [1, 1, 0]"] ;
415 -> 416 ;
417 [label="gini = 0.0\nsamples = 1\nvalue = [1, 0, 0]"] ;
416 -> 417 ;
418 [label="gini = 0.0\nsamples = 1\nvalue = [0, 1, 0]"] ;
416 -> 418 ;
419 [label="gini = 0.0\nsamples = 4\nvalue = [4, 0, 0]"] ;
415 -> 419 ;
420 [label="gini = 0.0\nsamples = 64\nvalue = [64, 0, 0]"] ;
414 -> 420 ;
421 [label="X[2] <= 0.003\ngini = 0.278\nsamples = 6\nvalue = [5, 1, 0]"] ;
413 -> 421 ;
422 [label="gini = 0.0\nsamples = 1\nvalue = [0, 1, 0]"] ;
421 -> 422 ;
423 [label="gini = 0.0\nsamples = 5\nvalue = [5, 0, 0]"] ;
421 -> 423 ;
424 [label="X[0] <= 146.0\ngini = 0.266\nsamples = 19\nvalue = [16, 3, 0]"] ;
402 -> 424 ;
425 [label="X[1] <= 0.003\ngini = 0.198\nsamples = 18\nvalue = [16, 2, 0]"] ;
424 -> 425 ;
426 [label="X[1] <= 0.002\ngini = 0.444\nsamples = 3\nvalue = [2, 1, 0]"] ;
425 -> 426 ;
427 [label="gini = 0.0\nsamples = 2\nvalue = [2, 0, 0]"] ;
426 -> 427 ;
428 [label="gini = 0.0\nsamples = 1\nvalue = [0, 1, 0]"] ;
426 -> 428 ;
429 [label="X[2] <= 0.274\ngini = 0.124\nsamples = 15\nvalue = [14, 1, 0]"] ;
425 -> 429 ;
430 [label="gini = 0.0\nsamples = 12\nvalue = [12, 0, 0]"] ;
429 -> 430 ;
431 [label="X[2] <= 0.427\ngini = 0.444\nsamples = 3\nvalue = [2, 1, 0]"] ;
429 -> 431 ;
432 [label="gini = 0.0\nsamples = 1\nvalue = [0, 1, 0]"] ;
431 -> 432 ;
433 [label="gini = 0.0\nsamples = 2\nvalue = [2, 0, 0]"] ;
431 -> 433 ;
434 [label="gini = 0.0\nsamples = 1\nvalue = [0, 1, 0]"] ;
424 -> 434 ;
435 [label="gini = 0.0\nsamples = 1\nvalue = [0, 0, 1]"] ;
401 -> 435 ;
436 [label="X[1] <= 0.005\ngini = 0.004\nsamples = 489\nvalue = [488, 1, 0]"] ;
400 -> 436 ;
437 [label="X[2] <= 0.02\ngini = 0.038\nsamples = 52\nvalue = [51, 1, 0]"] ;
436 -> 437 ;
438 [label="gini = 0.0\nsamples = 47\nvalue = [47, 0, 0]"] ;
437 -> 438 ;
439 [label="X[2] <= 0.024\ngini = 0.32\nsamples = 5\nvalue = [4, 1, 0]"] ;
437 -> 439 ;
440 [label="gini = 0.0\nsamples = 1\nvalue = [0, 1, 0]"] ;
439 -> 440 ;
441 [label="gini = 0.0\nsamples = 4\nvalue = [4, 0, 0]"] ;
439 -> 441 ;
442 [label="gini = 0.0\nsamples = 437\nvalue = [437, 0, 0]"] ;
436 -> 442 ;
}